float outWeight[96][48]={{0.3392583,-0.0099802,-0.2637530,0.0640902,0.0722892,-0.4389174,-0.0559696,-0.0504577,-0.0823965,-0.0399176,0.0598786,0.2582833,-0.0887892,-0.0803433,0.0533058,0.1854270,-0.1606002,-0.1677719,-0.0316009,-0.4273309,-0.2138330,0.1285844,-0.2529078,0.0403117,0.1574018,-0.0620645,0.2718616,0.1856800,-0.1576805,-0.4283790,0.2025315,0.1145470,-0.0099996,0.0777703,0.2055807,-0.0427293,-0.1570525,-0.2201819,-0.1830220,-0.2266891,-0.3041546,-0.2489082,0.1073463,0.2261225,-0.1513881,0.1303208,-0.0280661,0.0234345},
{0.2886193,-0.0658529,-0.1315719,0.0815415,0.0238670,-0.4590735,0.0868123,0.0065395,-0.2160916,0.2410425,-0.1708447,0.3264456,-0.0039639,0.1330136,0.1480680,0.1636541,0.0200543,0.0204861,-0.0079533,-0.3875504,-0.1734803,0.2538942,-0.0297775,0.0835798,0.1334505,0.0900767,-0.0296845,0.2085917,-0.0341057,-0.3393331,0.1052893,0.2384970,-0.0796358,-0.0981360,0.2225193,-0.1082653,-0.0999305,-0.0882368,-0.2168802,-0.3452750,-0.2796165,-0.3138086,-0.0306132,0.0768345,0.0404570,0.0324579,-0.0983957,-0.1778701},
{0.1401952,-0.1356083,0.0225391,0.0395752,0.0261201,-0.2276504,0.1668750,0.0544667,-0.2555851,0.4032937,-0.3129987,0.2972568,0.1168067,0.3257281,0.1568878,0.0902525,0.1728704,0.2106332,-0.0041881,-0.2734930,-0.0851524,0.2391425,0.1647422,0.1232609,0.0766653,0.1905447,-0.2714625,0.0120507,0.0748441,-0.1203734,-0.0252746,0.2694104,-0.1329994,-0.2368889,0.1370485,-0.1533789,-0.0135259,0.0521614,-0.0587286,-0.3293916,-0.1742279,-0.2411654,-0.1553101,-0.1341493,0.1482650,-0.0839872,-0.0869613,-0.3630832},
{-0.0454717,-0.1960020,0.1290654,-0.0125547,0.0171134,0.0996527,0.1561519,0.0967837,-0.2232846,0.4031043,-0.2944717,0.2032841,0.2520457,0.3806540,0.0842838,-0.0564929,0.2316541,0.2910409,-0.0027738,-0.1301204,0.0411656,0.0461873,0.2412179,0.1259568,-0.0285004,0.1587570,-0.3009924,-0.2767698,0.0877607,0.1872568,-0.1410521,0.1885272,-0.1363646,-0.2823820,-0.0752859,-0.1382338,0.0585408,0.1272168,0.1088358,-0.1887042,-0.0265088,-0.1154061,-0.2368772,-0.2784797,0.0812611,-0.2761643,-0.0302000,-0.4039692},
{-0.2120648,-0.1910679,0.1774799,-0.0249000,-0.0525730,0.3267941,0.0909265,0.1136736,-0.1418290,0.2763403,-0.1700391,0.0424066,0.3244488,0.2696450,-0.0198042,-0.2182742,0.1963575,0.2065971,0.0049261,0.0870938,0.1716024,-0.2095388,0.2365816,0.0826480,-0.1513727,0.0577802,-0.1343945,-0.3515913,0.0576476,0.4682942,-0.1968140,0.0387793,-0.0908136,-0.2242104,-0.3124337,-0.0502210,0.0954127,0.1428102,0.1300354,0.0092717,0.1223178,0.0012132,-0.2520990,-0.2716137,-0.0552697,-0.4452488,0.0065903,-0.2161516},
{-0.3219755,-0.0984319,0.1862586,-0.0222279,-0.1488101,0.3613797,0.0185565,0.0931374,-0.0138485,0.0633161,-0.0329913,-0.1786913,0.2673638,0.0456729,-0.0931877,-0.2804848,0.1149015,0.0372981,-0.0021885,0.3560570,0.2422238,-0.3586051,0.2053995,0.0004940,-0.2239374,-0.0046146,0.0675931,-0.1019516,0.1156426,0.5489069,-0.1789625,-0.1028740,-0.0289771,-0.0998883,-0.4172328,0.0542942,0.1046454,0.1343850,0.0363232,0.1883561,0.2276469,0.1001793,-0.1807924,-0.1435017,-0.1058029,-0.3845266,0.0056181,0.1099763},
{-0.2313122,0.1499209,0.0965618,-0.1125474,-0.1175703,0.0777011,-0.0863176,0.0037626,0.2639811,-0.4304597,0.2073173,-0.4214194,-0.1591615,-0.3848422,-0.0306382,-0.0076276,-0.0472836,-0.0545355,-0.0363716,0.3792380,0.0804383,-0.1294551,-0.0297809,-0.2132911,-0.1150461,-0.0958305,0.0771335,0.3249235,0.2947721,-0.0526058,-0.0249216,-0.1853653,0.0742805,0.1595035,-0.0759360,0.0659349,0.0922292,0.0348881,-0.0154327,0.3421094,0.2004839,0.2291985,0.1438780,0.1229337,0.0447437,0.4093460,0.0200495,0.3616311},
{-0.0066554,0.1991110,-0.0033466,-0.0735166,0.0161436,-0.0636936,-0.1048504,-0.0535458,0.2732758,-0.4951038,0.3125153,-0.2496673,-0.3527779,-0.4147581,0.0471046,0.1458707,-0.1277812,-0.0155011,0.0145180,0.0266536,-0.0568168,0.0825865,-0.2202653,-0.2595800,0.0024821,-0.2211994,-0.0379095,0.1508620,0.0609263,-0.3775925,0.0470639,-0.1442697,0.1370128,0.2429179,0.1720026,0.0349998,0.0488942,-0.0601573,0.0193535,0.2806006,0.0799935,0.2131649,0.2631188,0.1702989,0.0689468,0.5874637,0.0465808,0.2033153},
{0.2425986,0.1903987,-0.1119924,0.0941498,0.1321119,-0.1531913,-0.0863325,-0.1230386,0.1519907,-0.3193599,0.3184174,0.0445002,-0.4068533,-0.2776552,0.0703962,0.2168145,-0.1984447,-0.0676208,0.0867909,-0.2909772,-0.1432092,0.2238505,-0.3230506,-0.1958745,0.1274782,-0.2629112,-0.0794304,-0.0564539,-0.3214469,-0.4634790,0.0933359,-0.0834162,0.1938285,0.2620762,0.3347923,0.0593214,-0.0437932,-0.1293620,-0.0026536,0.1052094,-0.0708806,0.1362538,0.2799851,0.1482760,0.0490449,0.3798532,0.0496483,0.0471372},
{0.3821334,0.1338625,-0.2009771,0.2524278,0.1776769,-0.1956190,-0.0424937,-0.1652518,-0.0276971,0.0173050,0.1646314,0.2816131,-0.2846622,-0.0522087,0.0188551,0.2196069,-0.2154955,-0.1863220,0.0957044,-0.3639463,-0.1718111,0.2617252,-0.2735534,-0.0283923,0.2474622,-0.0918755,-0.0164433,-0.1201568,-0.5297007,-0.3347538,0.1114815,-0.0172319,0.1882963,0.1868957,0.3862320,0.0967079,-0.1605600,-0.1391395,-0.0543695,-0.1502098,-0.2046867,0.0151013,0.2021513,0.0641171,0.0373505,-0.0197725,0.0272962,-0.0320218},
{0.3365355,0.0287756,-0.2483619,0.2071651,0.1548741,-0.2002010,-0.0007709,-0.1243648,-0.1565847,0.3236288,-0.0952443,0.3493352,-0.0375150,0.1466648,-0.0523374,0.1676765,-0.1403719,-0.2259042,0.0131894,-0.2271205,-0.1655175,0.2136675,-0.1218806,0.1671450,0.3092919,0.2090471,0.0826876,-0.1074107,-0.3790927,-0.1323849,0.1102172,0.0497179,0.0781386,0.0243742,0.3249917,0.0576670,-0.2298994,-0.1075685,-0.0558883,-0.3794652,-0.2647566,-0.1382273,0.0674459,-0.0309948,0.0319814,-0.3073500,0.0019172,-0.0992446},
{0.1523198,-0.1072125,-0.2275289,-0.0545051,0.0903033,-0.1649507,0.0276509,-0.0015191,-0.1785583,0.4472740,-0.3180437,0.2746670,0.2092560,0.2734755,-0.0645545,0.0459812,0.0125399,-0.1018483,-0.0840926,-0.0751726,-0.1257475,0.1168746,0.0453626,0.2983356,0.2341545,0.3840517,0.1198915,-0.1489912,-0.0163139,0.0466742,0.1056662,0.1184755,-0.1077573,-0.1580277,0.1507678,-0.0664383,-0.1844208,-0.0679146,0.0064893,-0.4561255,-0.2114903,-0.2957191,-0.0881358,-0.0572881,-0.0082955,-0.3500223,-0.0168430,-0.2089299},
{-0.0497957,-0.2137117,-0.1109551,-0.3039276,0.0049184,-0.0778534,0.0554097,0.1227009,-0.1273084,0.3733172,-0.3865505,0.1487006,0.3380197,0.3679152,-0.0054223,-0.1309939,0.1699894,0.0989764,-0.0985687,-0.0231858,-0.0335948,0.0075256,0.1932960,0.3202522,0.0090834,0.2725507,0.0512512,-0.1957354,0.2617212,0.1919929,0.1007023,0.1867316,-0.2738227,-0.2691411,-0.1054273,-0.1690311,-0.0275341,-0.0183053,0.0620156,-0.3276113,-0.0620659,-0.3788792,-0.2296428,0.0056383,-0.0812548,-0.2363372,-0.0393566,-0.2881700},
{-0.1808601,-0.2227443,0.0905482,-0.2968456,-0.0836277,0.0612718,0.0869850,0.1623682,-0.0770263,0.1846337,-0.2892048,0.0168322,0.3222722,0.4402913,0.0502765,-0.2757831,0.2479929,0.2203334,-0.0269607,-0.0120758,0.0975996,-0.0898599,0.3098448,0.2433315,-0.2542683,-0.0100674,-0.0748273,-0.0825875,0.3214868,0.2955417,0.0665241,0.2296832,-0.3247248,-0.2625704,-0.3531497,-0.1474907,0.1523967,0.0633998,0.0527513,-0.0600021,0.1025565,-0.2908615,-0.3081317,0.0668124,-0.1241985,-0.1006096,-0.0638089,-0.2237495},
{-0.2323655,-0.1266388,0.2952893,-0.0394069,-0.1490899,0.2111306,0.0968420,0.1123052,-0.0629839,-0.0336543,-0.0972535,-0.1276518,0.2219920,0.3812948,0.0285739,-0.2878768,0.2123996,0.2129167,0.0410344,0.0579550,0.1980658,-0.1652995,0.3304772,0.0918184,-0.3892256,-0.2034599,-0.1500425,0.1919956,0.2584035,0.3028302,-0.0352797,0.1941386,-0.2315939,-0.1646139,-0.4757929,-0.0308139,0.2453302,0.1590389,0.0026226,0.2119967,0.1903772,-0.0204126,-0.2763874,0.0109628,-0.0904286,0.0216269,-0.0617775,-0.0289166},
{-0.2308451,0.0040413,0.3855022,0.2189984,-0.1644548,0.2910404,0.0593229,0.0389639,-0.0532425,-0.2270211,0.1041871,-0.2624506,0.0951504,0.0632657,-0.0451915,-0.1546173,0.0987421,0.1560074,0.0363057,0.1726112,0.1962250,-0.2142159,0.1757874,-0.1170191,-0.3162893,-0.1864689,-0.0943196,0.3880729,0.1901512,0.1822067,-0.1931842,0.0379420,-0.0412825,-0.0345361,-0.4052400,0.0527092,0.2063008,0.1988253,-0.0294794,0.3774049,0.1701839,0.2970623,-0.1318243,-0.1505614,-0.0079108,0.1500764,-0.0147348,0.1505797},
{-0.1789628,0.0851161,0.2975555,0.2580349,-0.1216881,0.2347094,-0.0077675,-0.0063930,0.0055526,-0.3427795,0.2520459,-0.3065094,-0.0584582,-0.4442497,-0.0665581,0.0372123,-0.0233720,0.1147980,-0.0131957,0.2282850,0.0962325,-0.2222918,-0.1132898,-0.3395087,-0.1058175,-0.0733624,0.0618995,0.2909663,0.0995847,-0.0003008,-0.3157667,-0.2024842,0.1637453,0.0889663,-0.1662298,0.0334058,0.0830349,0.1320971,-0.0298359,0.3980720,0.0897461,0.4621209,0.0664609,-0.2581111,0.0620023,0.2452981,0.0472239,0.2056785},
{-0.0658013,0.0976415,0.0788669,0.1026084,-0.0370204,0.0559018,-0.0553009,-0.0344777,0.1198338,-0.3289114,0.3055473,-0.2033493,-0.2433332,-0.8234159,0.0188992,0.1912796,-0.1054376,0.0468049,-0.0343094,0.1732838,-0.0187237,-0.1644156,-0.3422580,-0.4752106,0.1026048,-0.0302624,0.1818586,-0.0199700,-0.0725716,-0.1324043,-0.2898506,-0.3938302,0.3077517,0.1919902,0.1425574,-0.0171186,-0.0380857,-0.0056579,-0.0268162,0.2909826,0.0206026,0.3773172,0.2351945,-0.1691499,0.0992578,0.2159645,0.0682852,0.1774996},
{0.0800206,0.0916414,-0.1522348,-0.0531815,0.0604097,-0.1453254,-0.0645655,-0.0711464,0.2270951,-0.1841775,0.2532914,-0.0096202,-0.3862173,-0.7550856,0.1335018,0.2713469,-0.1454761,-0.1097512,-0.0059397,0.0597383,-0.0701715,-0.0282263,-0.3325934,-0.4128230,0.2238787,-0.0672858,0.1349425,-0.2590794,-0.2645693,-0.1763930,-0.0897723,-0.3899004,0.3413318,0.2504242,0.3991387,0.0132482,-0.1067234,-0.1207267,-0.0258914,0.0935696,-0.0099582,0.1250369,0.3193811,0.0708583,0.1230846,0.0443031,0.0323128,0.1646267},
{0.2013848,0.1448552,-0.3438100,-0.0527476,0.1684407,-0.2268405,-0.1048004,-0.0785702,0.1339117,0.1805885,-0.0125172,0.1819537,-0.1407088,0.3821169,0.0212609,0.1654339,-0.1639671,-0.3561211,0.0418728,-0.1323489,-0.0572263,0.3160686,0.0937636,0.2413158,0.2357966,0.0455403,-0.2634996,-0.1343866,-0.2108946,-0.2160744,0.3430968,0.1568868,0.0592019,0.0938694,0.4038062,0.1892911,-0.1338170,-0.1248687,0.0615211,-0.3380937,-0.0621322,-0.2568604,0.1926034,0.2618261,0.0596474,-0.2184870,-0.0132192,0.0790605},
{0.1516908,0.1210991,-0.2966501,-0.0539398,0.1333167,-0.1059070,-0.1235815,-0.0188734,-0.0486327,0.2615918,-0.1294010,0.1572144,0.1484767,0.7140737,-0.1275043,-0.0584231,-0.1141330,-0.2075364,0.0445942,-0.2171952,-0.0982980,0.3663938,0.1348463,0.5121802,0.1487236,0.1681439,-0.2613311,-0.0509374,-0.0345033,-0.1952919,0.3297260,0.3654418,-0.1588290,-0.0782824,0.1379654,0.1157595,-0.1200153,-0.0836606,0.0884139,-0.4123833,-0.1013305,-0.2785817,-0.0013971,0.1171344,-0.0866525,-0.1182521,0.0316503,-0.1205321},
{0.0984382,0.0078599,-0.1626156,-0.0909726,0.0480988,0.0268252,-0.0475441,0.0213899,-0.2064207,0.2678474,-0.2240156,0.1503014,0.3131104,0.6507434,-0.1724066,-0.3084211,0.0072092,0.0477316,0.0523261,-0.2498353,-0.1450543,0.2648230,0.0546520,0.5454621,-0.0041275,0.1827310,-0.0333323,-0.0265354,0.0743704,-0.0472004,0.1893000,0.3583752,-0.3193013,-0.1986372,-0.1799746,-0.0516372,-0.0692324,-0.0449302,0.0292614,-0.3227918,-0.1070436,-0.2332699,-0.2258236,-0.0164278,-0.2237282,0.0467913,0.0631293,-0.3119920},
{0.0584928,-0.1539456,0.0555087,-0.0792435,-0.0439781,0.1106847,0.1254449,0.0121980,-0.2666351,0.2029161,-0.2925602,0.1516959,0.2896987,0.3718217,-0.1057580,-0.4069169,0.1653322,0.2304951,0.0318557,-0.1553490,-0.1222497,0.0385143,0.0092722,0.3482758,-0.1748953,0.0842239,0.2549668,0.0471612,0.1278413,0.1892408,0.0339209,0.1903030,-0.3614627,-0.2133877,-0.4065693,-0.1812942,0.0235370,0.0094308,-0.0762552,-0.1039128,-0.0622300,-0.1388055,-0.3833200,-0.0634452,-0.2276176,0.1451188,0.0326365,-0.3428206},
{-0.0111438,-0.2743495,0.3004540,0.0146306,-0.1025567,0.1255764,0.2706553,0.0017853,-0.2235768,0.0532103,-0.2841720,0.0743487,0.1811769,0.0849097,-0.0258403,-0.2481866,0.2704315,0.2672758,-0.0514245,0.0482231,-0.0049584,-0.2237805,0.0537927,0.0344456,-0.2786722,-0.0273616,0.3850405,0.1831608,0.2055648,0.3505520,-0.0816222,-0.0016761,-0.2738340,-0.1507926,-0.4521469,-0.2003280,0.1274137,0.0801805,-0.1209933,0.1482445,0.0052676,-0.0010668,-0.3834430,-0.0803141,-0.0755095,0.1254259,-0.0497266,-0.1998148},
{-0.2322769,-0.2186184,0.2527696,0.1391841,-0.0923881,0.0866918,0.0934971,0.1795755,-0.0685291,-0.0805332,0.1130198,-0.1248811,0.1270250,-0.4734719,0.3811309,0.1882662,0.2361996,0.3513704,-0.0825544,-0.1164253,0.2841637,-0.3173913,0.3076913,-0.4331956,-0.0625515,-0.0031596,-0.1160998,0.3082584,0.2042454,0.1617557,-0.3894851,-0.0381942,0.1120127,-0.1599717,-0.1427367,-0.1389252,0.1026220,0.2572497,0.0500790,0.2040551,-0.0107975,0.2322158,0.1560082,-0.1683992,0.0275890,-0.2432109,0.1580121,0.0352972},
{-0.2944605,-0.0484044,0.1179367,0.0002414,-0.1008224,0.0825495,0.0208293,0.1685391,0.1214813,0.0050803,0.2921050,-0.2206280,0.1249510,-0.5675663,0.4582912,0.1161690,0.0871325,0.2178033,-0.0084998,0.0089765,0.3371080,-0.1630065,0.1342020,-0.4662758,-0.0076586,-0.0327861,-0.3837812,0.1452846,0.0181881,0.0067594,-0.3553714,-0.1055911,0.2682883,-0.0472794,-0.0567774,0.0346618,0.0440018,0.0478119,0.0643616,0.2102042,0.1955849,0.3023794,0.1510073,-0.2295625,0.0226460,-0.2722453,0.2826022,0.1309624},
{-0.2551110,0.1778568,-0.0393046,-0.0979469,-0.1147226,0.0980827,-0.0536540,0.0539687,0.2756201,0.1121193,0.3056726,-0.1801989,-0.0409500,-0.4042885,0.3351551,-0.0088328,-0.1042833,-0.0542811,0.0751416,0.2222157,0.2227942,0.0085006,-0.0359905,-0.3193862,0.0273201,-0.0717858,-0.4962573,-0.0269442,-0.1981849,-0.0887488,-0.2279093,-0.1488856,0.3391236,0.1028584,0.0704278,0.2163702,-0.0082029,-0.1104688,0.0192870,0.1358775,0.3067732,0.2304033,0.0670837,-0.1921680,0.0453872,-0.1507003,0.1836962,0.2813814},
{-0.1214400,0.3486499,-0.1798185,-0.1259113,-0.0643376,0.1487173,-0.0960791,-0.0847125,0.3343344,0.1154376,0.1797393,-0.0404764,-0.3012857,-0.0598569,0.0424417,-0.0889482,-0.2174649,-0.3339562,0.1095075,0.4009304,-0.0185962,0.1386572,-0.1246030,-0.0605585,0.0810950,-0.0660766,-0.3748879,-0.1715412,-0.2115986,-0.1391146,-0.0403504,-0.1615287,0.2867602,0.2266411,0.2206836,0.3223643,-0.0572554,-0.1411317,-0.0212457,0.0062331,0.2887702,0.1046132,0.0473470,-0.0780979,0.0850133,0.0982708,0.0035176,0.3784258},
{0.0632892,0.3561585,-0.2693013,-0.1165351,0.0714282,0.1502373,-0.1131738,-0.1496260,0.2596535,-0.0280193,0.0410791,0.0718380,-0.4340885,0.2601112,-0.2937997,-0.1031189,-0.2074166,-0.4479401,0.1001611,0.3780860,-0.2506864,0.2212794,-0.1760622,0.1964024,0.1414467,-0.0214797,-0.0555317,-0.3169728,-0.0189111,-0.1769497,0.1726760,-0.1379288,0.1172093,0.2587891,0.3111689,0.2796464,-0.0994489,-0.1073964,-0.0154616,-0.1100329,0.1775386,-0.0048342,0.1180705,0.0688721,0.0850275,0.3199349,-0.0850331,0.2693574},
{0.3569291,-0.0374251,-0.1758516,-0.0090601,0.2447931,-0.1947125,-0.0707099,-0.1291322,-0.1307017,-0.2367603,-0.0610750,0.0200926,0.0203959,0.3060330,-0.4369911,-0.0790755,-0.0514856,-0.1032913,0.0787998,-0.2359071,-0.2406060,0.2608675,-0.2205798,0.3711977,0.0744758,0.0225868,0.4951757,-0.2866968,0.0900016,-0.0984416,0.4541629,0.0446896,-0.2621682,0.0589967,0.0807569,-0.0961479,-0.0885755,-0.1043659,0.0051019,-0.1240345,-0.1575235,-0.1567612,0.0730949,0.3243597,-0.0772279,0.1609652,-0.0019347,-0.3110249},
{0.3442067,-0.1983568,-0.0047744,0.0957874,0.1321116,-0.3306911,0.0195640,-0.1365994,-0.2572954,-0.0922682,-0.1390606,0.0101865,0.2904277,0.1606279,-0.1693384,-0.0152634,-0.0036391,0.1133564,-0.0059472,-0.4516665,-0.0606109,0.1544455,-0.0947836,0.2723130,-0.0312053,0.0446843,0.4161908,0.0644611,-0.0980312,0.0324582,0.3843439,0.1771370,-0.3020766,-0.0670898,-0.1311298,-0.2146891,-0.0315088,-0.0696742,-0.0190947,-0.0737609,-0.3227773,-0.1954587,-0.1114005,0.3156592,-0.1278568,-0.0715169,-0.0190516,-0.3824975},
{0.1814240,-0.2399132,0.1622228,0.1533254,-0.0445168,-0.2679684,0.1197583,-0.0770133,-0.2661372,0.1107353,-0.2442122,0.0904614,0.3586880,0.0519351,0.1431486,0.1049007,0.0515589,0.2519821,-0.1704907,-0.4365041,0.0789898,-0.0533888,0.0999922,0.1021238,-0.0926732,0.0922524,0.1412358,0.4378018,-0.1993241,0.1251352,0.1360875,0.2616806,-0.2252191,-0.1643331,-0.2595398,-0.2306402,0.0278662,0.0275155,-0.0237346,-0.0466585,-0.3965780,-0.1799781,-0.2401010,0.1427077,-0.1117597,-0.1818098,-0.0732626,-0.2605059},
{-0.0757740,-0.2079527,0.2462239,0.1016814,-0.1668661,-0.0529251,0.1625247,0.1108875,-0.1933089,0.2301368,-0.2652283,0.1875931,0.2472057,-0.0228238,0.3431120,0.1962211,0.1363013,0.3208873,-0.2886884,-0.2552493,0.1287843,-0.2733867,0.2339385,-0.0909713,-0.0903401,0.1105279,-0.1331079,0.5516037,-0.1218242,0.1302474,-0.2107325,0.2335565,-0.0892085,-0.2292021,-0.2571468,-0.1907796,0.0705712,0.1252439,-0.0010327,-0.0375409,-0.2923123,-0.1096249,-0.2173402,-0.1372506,-0.0566276,-0.1557526,-0.0793511,-0.1008767},
{-0.3033338,-0.1644124,0.2226629,-0.0154402,-0.1809039,0.1545985,0.1213315,0.3256359,-0.0947454,0.2363241,-0.1296718,0.1842633,0.0808591,-0.1069725,0.3798101,0.1543932,0.2122453,0.3075335,-0.2072758,-0.0188566,0.1308742,-0.3712471,0.2440394,-0.2543322,-0.0683548,0.0431892,-0.2568456,0.3380710,0.0342200,0.0925261,-0.4954286,0.0894343,0.0480058,-0.2453054,-0.1552145,-0.1258704,0.0959510,0.1547869,0.0128330,-0.0100281,-0.0135983,-0.0075900,-0.0943587,-0.3711988,0.0091027,-0.1085001,-0.0144863,0.0089270},
{-0.3882822,-0.1116848,0.1299307,-0.0841822,-0.1204878,0.2410690,0.0366659,0.3636813,0.0090932,0.1824591,0.0956238,0.0364225,-0.0408043,-0.1877290,0.2876697,-0.0123816,0.2094612,0.1715011,0.0594425,0.2111321,0.1384990,-0.2817035,0.1856917,-0.3320207,-0.0650336,-0.0756164,-0.2373064,-0.0102101,0.1535483,0.0776876,-0.5629887,-0.0950381,0.1554991,-0.1793006,-0.0213862,-0.0204722,0.1042333,0.1161502,-0.0017881,0.0535962,0.3002087,0.1040803,0.0112277,-0.4257707,0.0779038,-0.1159507,0.0593256,0.1149830},
{-0.3079567,-0.0073610,0.0249449,-0.0535059,-0.0499955,0.2194749,-0.0334583,0.1428885,0.1243795,0.0882196,0.2627897,-0.1793361,-0.0968771,-0.2066990,0.1121364,-0.1711929,0.0986454,-0.0631387,0.2972168,0.3935969,0.1439596,-0.0714477,0.1224567,-0.2895270,-0.0642751,-0.1418950,-0.1845542,-0.2725906,0.2310355,0.0786856,-0.3686081,-0.2204911,0.2181872,-0.0224178,0.0823464,0.1283489,0.0832407,0.0583241,-0.0138987,0.1296484,0.4601735,0.2053496,0.0532853,-0.2880776,0.1312383,-0.1244663,0.0783393,0.2537833},
{-0.1306699,0.1571126,-0.0611978,0.0060008,-0.0027390,0.1599124,-0.0721999,-0.1778804,0.2326094,-0.0774566,0.2841676,-0.3253121,-0.1167831,-0.1457976,-0.1096314,-0.2006391,-0.0727619,-0.2664065,0.2981338,0.4514942,0.0976917,0.1225909,0.0274949,-0.1421790,-0.0285516,-0.1021434,-0.1624865,-0.3930075,0.2782643,0.0364429,-0.0140232,-0.2405316,0.2195292,0.1731066,0.1214566,0.2568011,0.0236502,0.0074071,0.0078433,0.1752380,0.3795380,0.2564746,0.0819104,-0.0483324,0.1255701,-0.0424800,0.0462213,0.3335280},
{0.0553465,0.3117861,-0.1237640,0.0004902,0.0296367,0.0868968,-0.0987308,-0.3453728,0.2753811,-0.2904830,0.1907833,-0.3086912,-0.1351731,-0.0542559,-0.3097253,-0.1099086,-0.2145710,-0.3077997,0.0809851,0.3170707,-0.0152621,0.2142777,-0.1476145,0.0478326,0.0405746,-0.0153934,-0.1195261,-0.4082778,0.2063741,-0.0582139,0.3182893,-0.1813170,0.1481044,0.3130467,0.1016482,0.2741207,-0.0561872,-0.0503793,0.0374981,0.1614136,0.1386090,0.2081512,0.1430397,0.1912489,0.0431712,0.1205799,0.0105778,0.2314570},
{0.2015619,0.3508276,-0.1581792,-0.0602373,0.0679399,-0.0222391,-0.1180724,-0.2653137,0.2051862,-0.4144632,0.0634931,-0.1432199,-0.1636682,0.0184962,-0.3849604,0.0010817,-0.2596548,-0.1932629,-0.1351803,0.0333133,-0.1416509,0.2177651,-0.3359136,0.2068928,0.1001210,0.0273198,0.0250180,-0.2871706,-0.0742218,-0.1349769,0.4799606,-0.0915526,0.0194278,0.3235806,0.0676147,0.1557257,-0.1139658,-0.1172959,0.0245302,0.0844568,-0.1023494,0.0566710,0.1980047,0.3633145,-0.0598293,0.2523223,-0.0021066,-0.0199227},
{0.2928689,0.2199113,-0.1525888,-0.0773522,0.1164401,-0.1588034,-0.1037325,-0.0715248,0.0431727,-0.3128808,-0.0516862,0.0756131,-0.1756302,0.0779556,-0.2719738,0.0712372,-0.2010496,-0.0533617,-0.1735663,-0.2463909,-0.2083345,0.1847934,-0.3717854,0.2838881,0.1184575,0.0159537,0.2486155,0.0267054,-0.4450877,-0.1354648,0.4302528,0.0092014,-0.1180118,0.1993504,0.0669454,-0.0257683,-0.1189642,-0.1537217,-0.0230522,-0.0393243,-0.2432339,-0.1242144,0.1669138,0.4132236,-0.0985025,0.2617985,-0.0036344,-0.2267289},
{0.3099302,-0.0332625,-0.1064282,0.0004796,0.1522719,-0.2528199,-0.0371338,0.0524180,-0.1298137,-0.0127069,-0.1451280,0.2465014,-0.1159314,0.1461582,-0.0238508,0.1210915,-0.0793320,0.0102596,-0.0706108,-0.3894742,-0.1886825,0.1249115,-0.1780986,0.2593052,0.1038426,0.0149206,0.4083417,0.4176883,-0.5954484,-0.0926452,0.2285885,0.1227374,-0.2049967,-0.0003280,0.0958809,-0.1683642,-0.0791331,-0.1217272,-0.0359554,-0.1743156,-0.2901314,-0.2350483,0.0325358,0.2939625,-0.0597155,0.1610808,-0.0092822,-0.2404634},
{0.2270835,-0.2831187,-0.0391617,0.1028159,0.1351389,-0.2407034,0.0558054,0.0685763,-0.2393574,0.2914790,-0.1983913,0.3183816,0.0453837,0.1959085,0.2133622,0.1684435,0.0542412,0.0285237,0.0112361,-0.3866623,-0.1101752,0.0137576,0.1144183,0.1427372,0.0731666,0.0559678,0.3642783,0.5870662,-0.3302656,-0.0771122,-0.0225780,0.2266287,-0.2059052,-0.1913221,0.0908817,-0.2219965,-0.0274350,-0.0390316,0.0154319,-0.2657180,-0.2822964,-0.2384815,-0.1297950,0.0256664,-0.0212306,0.0153228,-0.0159305,-0.1179836},
{-0.1544161,-0.3265518,0.1019465,0.0478304,-0.1138684,-0.0059692,0.1430037,0.1281884,-0.2170203,0.3353563,-0.1097503,0.1685093,0.3683738,0.0592273,0.2561599,0.0399290,0.2255790,0.2057498,-0.0482300,-0.1435802,0.0947846,-0.2250438,0.2703940,-0.1665498,-0.0739353,0.0601413,-0.2131130,-0.1276252,0.5359797,-0.0189806,-0.3323850,0.1887203,-0.0173951,-0.3030430,-0.1538396,-0.1191821,0.0532286,0.0871579,0.0049849,-0.1411754,-0.0545873,-0.1013870,-0.2243058,-0.4040176,-0.0813496,-0.2767131,-0.0313563,-0.0544544},
{-0.3034404,-0.1080906,0.1767820,-0.0403422,-0.2351456,0.1106646,0.1192412,0.1753343,-0.1095662,0.1645971,-0.0272612,-0.0232243,0.2935956,-0.0569010,0.1118261,-0.1492064,0.2254754,0.2681243,-0.0187550,0.1062722,0.1856593,-0.1939221,0.1672788,-0.2185991,-0.1690130,-0.0053450,-0.4316473,-0.4322383,0.5043404,0.1526859,-0.3121888,0.0243877,0.0754619,-0.1963091,-0.2514748,-0.0079038,0.0956711,0.1240942,-0.1087451,0.0467486,0.1710430,-0.0049803,-0.1526930,-0.3343700,-0.0258083,-0.3366260,-0.0512540,-0.0912708},
{-0.3390456,0.1310240,0.2220543,-0.0712659,-0.2344786,0.2212354,0.0653225,0.1232142,0.0505765,-0.0074042,0.0294648,-0.2362967,0.0602762,-0.1066003,-0.0389837,-0.2668378,0.1514208,0.1895585,0.0648626,0.3966731,0.2244768,-0.0683816,0.1029961,-0.1657060,-0.1981518,-0.0376017,-0.4380181,-0.3621490,0.2058370,0.3296874,-0.1937699,-0.1502163,0.1190771,-0.0268888,-0.2146125,0.1061377,0.1262861,0.1587279,-0.1355158,0.2238986,0.3536936,0.1376770,-0.0480148,-0.1400339,0.1225681,-0.2362033,-0.0500411,-0.0272533},
{-0.2577529,0.2680315,0.1801002,-0.0575384,-0.0983152,0.3120782,-0.0205187,-0.0199170,0.2212866,-0.1731706,0.0847975,-0.3768066,-0.1793893,-0.1046340,-0.1511842,-0.2183450,0.0116692,-0.0011329,0.1046516,0.5525113,0.1747623,0.0350146,0.0584940,-0.0630951,-0.1254761,-0.0270985,-0.2353519,-0.0939215,-0.0775059,0.3473690,-0.0326338,-0.2569053,0.1170500,0.1440590,-0.0740513,0.1753474,0.1114511,0.1472126,0.0027046,0.3187800,0.3783414,0.2875387,0.0705015,0.0415803,0.2197808,0.0097872,0.0031318,0.1235236},
{-0.0933774,0.2605569,0.0305837,-0.0438591,0.0810273,0.3039929,-0.1256639,-0.1485672,0.3197056,-0.3291035,0.1719377,-0.3575256,-0.2897250,-0.1226292,-0.2033020,-0.0520379,-0.1517615,-0.1914479,0.0564416,0.4251486,0.0467228,0.0384953,-0.0596348,0.0129435,0.0057924,-0.0367757,0.0790048,0.0756035,-0.2044836,0.1524145,0.1134836,-0.2643762,0.0949797,0.2611647,0.0648866,0.1696980,0.0367484,0.0420501,0.1869179,0.2983780,0.2252010,0.3355837,0.1799430,0.1518152,0.1332007,0.2533072,0.0864106,0.2467379},
{0.1027032,0.1619933,-0.1620596,-0.0313727,0.1800085,0.1222791,-0.1973043,-0.1786639,0.2789993,-0.4005233,0.2527339,-0.1751784,-0.2591270,-0.1776149,-0.1784271,0.1036768,-0.2688298,-0.2921386,-0.0210578,0.0708126,-0.0976021,-0.0093216,-0.2413611,0.0319811,0.1143922,-0.0961331,0.3507979,0.0833513,-0.2275945,-0.1402610,0.2085151,-0.1842079,0.0717606,0.2904676,0.1370095,0.1066221,-0.0683502,-0.1242725,0.2130093,0.1696175,-0.0140931,0.2081724,0.2385381,0.2188849,-0.0827886,0.3394423,0.1272020,0.2625882},
{0.0207636,-0.1560578,0.1083191,0.0504511,-0.0866728,-0.1925236,0.2010529,0.1164268,-0.2879931,0.4425967,-0.3217041,0.2415882,0.1941185,0.2837481,0.1781677,-0.0101655,0.2384594,0.2520278,0.0135446,-0.1527901,0.0114986,0.1384772,0.2428388,0.0631469,-0.0241275,0.1687910,-0.3132885,0.0361087,0.1519432,0.0321452,-0.1173066,0.2453973,-0.1201740,-0.2831067,-0.0004912,-0.1345925,0.0323160,0.1056858,-0.1561607,-0.2683702,-0.0841425,-0.2406232,-0.2191806,-0.1735608,0.1424551,-0.2220298,-0.1233462,-0.3111164},
{-0.1734822,-0.1428792,0.2286571,-0.0141617,-0.0672021,0.1569746,0.1796705,0.1125707,-0.1738306,0.3702387,-0.2931988,0.0556477,0.2257475,0.3115442,0.0915838,-0.1043139,0.2767570,0.3069003,0.0137125,0.0930978,0.1209657,0.0200340,0.3326541,0.0560765,-0.0951121,0.1770426,-0.3855918,-0.1490991,0.2008657,0.2799302,-0.2049128,0.1334529,-0.1068714,-0.2764642,-0.1227441,-0.0978916,0.1142231,0.2062848,0.0631366,-0.0857012,0.0934165,-0.0308579,-0.2407860,-0.2952247,0.1761432,-0.2462130,-0.0546328,-0.2991126},
{-0.3001189,-0.1114027,0.2361209,-0.0634646,-0.0588380,0.4147389,0.0740809,0.0957859,-0.0271798,0.1477890,-0.1121788,-0.1155739,0.2284760,0.1726566,-0.0298252,-0.1988449,0.1942499,0.2226714,0.0061050,0.2473805,0.1991054,-0.1929783,0.2508887,0.0080763,-0.1636231,0.0562618,-0.2202872,-0.3107614,0.1477441,0.4487630,-0.2237859,-0.0349112,-0.0462536,-0.1673021,-0.2779584,-0.0213862,0.1391345,0.1889893,0.1925759,0.1327353,0.2192310,0.1391988,-0.1875732,-0.2819494,0.0380951,-0.2760682,0.0283602,-0.1428726},
{-0.3235366,-0.0269430,0.1676131,-0.0568080,-0.0951821,0.4343030,-0.0396408,0.0579867,0.1022366,-0.1063063,0.0974139,-0.2537634,0.1486180,-0.0687408,-0.1167617,-0.2406144,0.0498839,0.0263952,0.0076685,0.3568232,0.2233617,-0.3408767,0.1022000,-0.0660971,-0.1994224,-0.0840914,0.0463552,-0.2129717,0.0654063,0.4631689,-0.1644481,-0.1844030,0.0369658,-0.0006342,-0.3521414,0.0805949,0.1116337,0.1077633,0.1291768,0.2939479,0.2694467,0.2159741,-0.0782430,-0.1227911,-0.1017190,-0.2353698,0.0584287,0.1385428},
{-0.2497599,0.0985005,0.0771089,-0.0286992,-0.1254581,0.2421391,-0.1060683,-0.0019956,0.2018301,-0.3085861,0.2237573,-0.3468686,-0.0254329,-0.2925333,-0.1266151,-0.1594033,-0.0784214,-0.1574855,0.0028599,0.4131494,0.1648243,-0.2974251,-0.0216663,-0.1365991,-0.1572655,-0.1341111,0.2157174,0.1151923,0.0620953,0.2591184,-0.0537517,-0.2460200,0.1003246,0.1526303,-0.2450527,0.1469348,0.0609796,0.0281828,-0.0176665,0.3404175,0.2349837,0.2233136,0.0653415,0.0809252,-0.1009324,-0.0086393,0.0386031,0.3924718},
{-0.0997625,0.1997080,-0.0121352,-0.0302921,-0.0794873,-0.0150046,-0.1215843,-0.0597871,0.2574951,-0.4223624,0.2565117,-0.3390466,-0.2295097,-0.4040670,-0.0637578,0.0287969,-0.1495794,-0.2049172,-0.0119694,0.3096037,0.0274574,-0.0814000,-0.1251332,-0.1798144,-0.0378324,-0.1128927,0.1902542,0.3588929,0.1055905,-0.1140790,0.0585404,-0.2047287,0.1236075,0.2391692,0.0143487,0.1263499,0.0128848,-0.0366036,-0.0836765,0.2751912,0.1266022,0.1925536,0.2052048,0.2101225,0.0080970,0.3470856,0.0191217,0.4320842},
{0.2943197,0.1508913,-0.1718812,0.0252471,0.1630932,-0.2632010,-0.0663673,-0.1095978,0.1038058,-0.2178029,0.1880615,0.1123200,-0.3557290,-0.1751009,0.0807704,0.2662737,-0.1672679,-0.0427766,0.0379482,-0.3517119,-0.2147674,0.3130075,-0.2957255,-0.0973179,0.1948763,-0.1325456,-0.0793317,-0.0251150,-0.2151329,-0.5508300,0.1527067,0.0066416,0.1111700,0.1917225,0.4062958,-0.0101172,-0.0798331,-0.1496021,0.0094176,-0.0455706,-0.1565767,0.0168259,0.2517569,0.1548310,0.0741772,0.4293692,0.0348812,-0.0570891},
{0.3909531,0.0442761,-0.2058063,0.1464005,0.2000548,-0.2322574,-0.0087427,-0.1107715,-0.0844327,0.1043376,0.0541562,0.3624443,-0.1939851,0.0871293,0.0607953,0.1988343,-0.1352618,-0.0586639,0.0740949,-0.4946317,-0.2026849,0.3027329,-0.2312564,0.0501128,0.2296598,-0.0665469,-0.0760666,-0.2320171,-0.4462106,-0.3531549,0.1321180,0.0870088,0.0803597,0.0833834,0.3604642,-0.0037730,-0.1374948,-0.1448246,-0.0061493,-0.2370496,-0.2415656,-0.1059214,0.1204144,0.0492351,0.0136977,-0.0028651,0.0177964,-0.2195664},
{0.3160327,-0.0634134,-0.1839235,0.1897105,0.1399601,-0.1541083,0.0477628,-0.0753298,-0.2311401,0.4053245,-0.1571487,0.4230401,0.0620807,0.3070405,-0.0127465,0.0758743,-0.0554971,-0.1107924,0.0399832,-0.3339676,-0.1247306,0.1802573,-0.0427141,0.2145723,0.2101435,0.1367296,0.0165561,-0.2070267,-0.3929468,-0.0253296,0.0873430,0.1337240,-0.0021279,-0.0652449,0.1963757,0.0092333,-0.1692141,-0.0788665,-0.0428603,-0.3815340,-0.2474053,-0.2074452,-0.0501730,-0.0575062,-0.0208971,-0.4030777,-0.0175512,-0.2288227},
{0.0908037,-0.1564176,-0.1086240,0.0422532,0.0318501,-0.0606051,0.0776963,0.0176971,-0.2533356,0.5090767,-0.3466979,0.2754121,0.3009240,0.3890333,-0.0675545,-0.0489374,0.0724404,-0.0655161,-0.0536959,-0.0373527,-0.0341764,0.0218113,0.1611128,0.3082139,0.1216479,0.3359954,0.0913500,-0.0895196,-0.0330916,0.2274307,0.0362408,0.1526910,-0.1348878,-0.2138295,-0.0160809,-0.0418360,-0.1259122,0.0061529,-0.0243014,-0.3965867,-0.1631706,-0.2654858,-0.1924977,-0.1203317,-0.0307533,-0.4969191,-0.0417547,-0.1940215},
{-0.1613165,-0.2153504,0.0101901,-0.2075670,-0.0686455,0.0367907,0.0779120,0.1331873,-0.1570619,0.3639406,-0.3868265,0.0418174,0.4058465,0.3361285,-0.0470775,-0.1662024,0.2007967,0.1007489,-0.1151454,0.1537497,0.0499351,-0.1119476,0.2759472,0.2730010,-0.0521265,0.3172753,0.0709937,-0.0405105,0.3529243,0.3261085,-0.0069532,0.1496007,-0.2549463,-0.2923905,-0.2283446,-0.1328283,0.0057934,0.0668748,0.0405066,-0.2351965,-0.0077899,-0.2613440,-0.2697116,-0.0989964,-0.0553848,-0.2949420,-0.0453083,-0.1833051},
{-0.3061508,-0.2023073,0.1570016,-0.3163548,-0.1352624,0.1344472,0.0675828,0.1878930,-0.0277411,0.0780005,-0.2399282,-0.1422697,0.3289698,0.2262601,0.0247567,-0.2537141,0.2555454,0.2535125,-0.0755029,0.1685685,0.1329727,-0.1909896,0.2875340,0.1263606,-0.2613222,0.0488856,-0.0307234,-0.0177841,0.4725588,0.3153651,-0.0423222,0.1241467,-0.2749083,-0.2489762,-0.3888013,-0.1573733,0.1679824,0.1033622,0.0715688,0.0508954,0.1569043,-0.1607473,-0.2696677,-0.0177847,-0.0877113,-0.0172001,-0.0419045,-0.1364820},
{-0.3003623,-0.0969838,0.2887074,-0.1452906,-0.1609008,0.2167227,0.0554148,0.1334849,0.0513919,-0.1883411,0.0085513,-0.2362657,0.1303176,0.0975961,0.0638407,-0.2485753,0.1945884,0.2545471,0.0238426,0.1249450,0.1958506,-0.2111523,0.2259767,-0.0617318,-0.3795669,-0.2483727,-0.1253627,0.1062376,0.3085535,0.2421831,-0.0888267,0.0641747,-0.1573204,-0.1007559,-0.4273192,-0.0596995,0.2588202,0.1350624,0.0304243,0.3231446,0.2466429,0.0528989,-0.1857615,0.0261763,-0.0741091,0.1578292,-0.0349399,0.0162883},
{-0.1989878,0.0575675,0.3296817,0.1641118,-0.1394995,0.2446132,0.0252493,0.0146628,0.0683096,-0.3410306,0.2279997,-0.2701921,-0.0736042,-0.1021831,0.0238932,-0.1121860,0.0464159,0.1187182,0.0783112,0.1354327,0.1876404,-0.1839185,0.0880852,-0.2284385,-0.3018244,-0.3261154,-0.1229291,0.2845596,0.0707915,0.1029566,-0.1582178,-0.0478535,0.0485479,0.0729987,-0.2963673,0.0810430,0.2119492,0.1465423,-0.0324250,0.4471422,0.2129173,0.3103015,-0.0257493,-0.0363791,0.0039245,0.2192488,-0.0077503,0.2115945},
{-0.0750600,0.1713296,0.2209690,0.3247283,-0.0708187,0.1744716,-0.0324848,-0.0772656,0.0734751,-0.3670071,0.3349304,-0.2510508,-0.2101529,-0.4024220,-0.0408600,0.0971846,-0.1081062,-0.0249064,0.0444825,0.1687294,0.0838777,-0.1230658,-0.1307749,-0.3411110,-0.0563784,-0.1680161,-0.0099136,0.2989077,-0.0804129,-0.0877878,-0.2165940,-0.2014497,0.2413482,0.1943615,-0.0273102,0.1348648,0.0558684,0.0925680,-0.0516381,0.3801768,0.0871715,0.4566644,0.1627949,-0.1424805,0.0917364,0.2273713,0.0420507,0.2995233},
{0.0440484,0.1843188,-0.0119172,0.2062863,0.0255184,0.0059796,-0.0891986,-0.1001859,0.1108064,-0.2794752,0.3152661,-0.1437935,-0.2848479,-0.6626440,-0.0364814,0.2561721,-0.1947374,-0.1003836,-0.0169732,0.1254414,-0.0628046,-0.0341290,-0.3411138,-0.3682992,0.2034923,0.0232377,0.1255195,0.0485709,-0.1676759,-0.2442672,-0.1890087,-0.3255573,0.3344070,0.2376370,0.2688147,0.0754910,-0.1082168,-0.0329997,-0.0270600,0.1785589,-0.0420316,0.3672709,0.2993160,-0.1417012,0.1242034,0.1830351,0.0787379,0.2225625},
{0.1562519,0.1208462,-0.2526914,-0.0434106,0.1137858,-0.1875193,-0.1021596,-0.0862765,0.1625039,-0.0978089,0.1949247,0.0479369,-0.3142698,-0.6246411,0.0482287,0.2854625,-0.1940910,-0.1512005,-0.0280885,-0.0083370,-0.1562657,0.0812406,-0.3796512,-0.2630709,0.3301540,0.0786659,0.1552500,-0.2733572,-0.2575975,-0.2775782,-0.0296896,-0.3131057,0.2963553,0.2170006,0.4628564,0.0070542,-0.1902091,-0.1602691,-0.0021472,-0.0631883,-0.1044716,0.0754030,0.3209727,0.0285042,0.0978469,0.0483424,0.0623324,0.0797235},
{0.2331749,0.0556797,-0.3752958,-0.1855532,0.1623642,-0.2945931,-0.0693132,-0.0748827,0.1632826,0.1213804,0.0203788,0.2285456,-0.2586865,-0.1761859,0.1120669,0.2010767,-0.1391371,-0.2262436,0.0117463,-0.1425238,-0.1480776,0.2050625,-0.1793182,-0.0097671,0.2943959,0.0353150,0.0282675,-0.3779987,-0.3016415,-0.1984369,0.2036980,-0.1131355,0.1478219,0.1431616,0.4744369,0.0257874,-0.1752307,-0.2008476,0.0090839,-0.2680557,-0.1007223,-0.2361079,0.2248294,0.2424126,0.0521638,-0.1393921,0.0033343,-0.0106433},
{0.2263489,0.0297627,-0.3357268,-0.1463550,0.1556978,-0.2498964,-0.0340075,-0.0567082,0.0668447,0.2831837,-0.1451425,0.2827157,-0.0685430,0.4563795,0.0561334,0.0585813,-0.0720686,-0.2648488,0.0429370,-0.2008079,-0.0822069,0.2908051,0.1163842,0.3104233,0.1687165,0.0351701,-0.1599302,-0.2066203,-0.1993488,-0.0991336,0.3662929,0.1904983,-0.0576010,0.0158063,0.2991943,0.0930992,-0.1107261,-0.1371623,0.0293088,-0.3846212,-0.0796184,-0.3870052,0.0574546,0.3020962,-0.0001505,-0.2494657,-0.0399486,-0.0556917},
{0.0030430,-0.0482888,0.0037705,-0.0077108,-0.0024801,0.0873264,0.0031347,0.0576194,-0.2434589,0.2336894,-0.2590664,0.0704119,0.3964854,0.7509223,-0.1836195,-0.2778362,0.0780723,0.0874342,0.0086972,-0.1567225,-0.0405679,0.1482571,0.2027507,0.5105703,-0.1062841,0.1647970,-0.0892907,0.1350076,0.2115072,0.0501936,0.1409418,0.4044245,-0.3524634,-0.2487816,-0.3010556,-0.0403480,0.0145036,0.0435024,0.0437062,-0.2286070,-0.0672105,-0.1807621,-0.2839913,-0.0750095,-0.1729514,0.0010708,0.0151778,-0.2618291},
{-0.0817908,-0.1521362,0.1840373,-0.0172037,-0.0990476,0.1853130,0.0872821,0.0807233,-0.2787999,0.0941669,-0.2173130,-0.0043792,0.3707246,0.2882364,-0.1355157,-0.3537708,0.1737283,0.3100612,-0.0081467,-0.0757105,-0.0368142,-0.0725120,0.0434148,0.2454935,-0.2229033,0.0912218,0.1750315,0.1251014,0.2493076,0.1890314,-0.0964991,0.1832300,-0.3244738,-0.2470705,-0.4815618,-0.1872306,0.0786826,0.0816237,-0.0302769,0.0143342,-0.0296248,-0.0169040,-0.3627124,-0.1928631,-0.1970228,0.1546130,0.0247009,-0.2989777},
{-0.1181444,-0.2317572,0.3316840,0.0132614,-0.1520962,0.1813329,0.1948965,0.0520115,-0.1876066,-0.0549633,-0.1394320,-0.0445113,0.1660882,-0.1917614,0.0014406,-0.2384960,0.2358655,0.3514246,-0.0355181,0.0750826,0.0289355,-0.2924176,-0.0259530,-0.1237802,-0.2804704,-0.0568675,0.3448849,0.1338957,0.1923043,0.3169925,-0.2413659,-0.0927889,-0.1729113,-0.1364115,-0.4576643,-0.2226140,0.1422160,0.1078455,-0.1042538,0.2571003,0.0373400,0.1158657,-0.3100514,-0.1703909,-0.0859813,0.1661586,-0.0231401,-0.1592636},
{-0.1507620,-0.2122906,0.3953886,0.0952293,-0.1417586,0.1076384,0.2100087,0.0267174,-0.0274713,-0.1973409,-0.0116435,-0.1229675,-0.0459997,-0.4566894,0.0995333,0.0511289,0.2006523,0.2169110,-0.0881321,0.2378543,0.1407276,-0.4105822,0.0137390,-0.4168558,-0.2298130,-0.1526254,0.2691360,0.1745909,0.1450054,0.2986597,-0.2695222,-0.2605366,0.0426030,0.0064128,-0.2469424,-0.1250828,0.1716445,0.1268788,-0.0902861,0.3942695,0.0934023,0.2140665,-0.1162724,-0.1094852,0.1084798,0.0562728,-0.0874886,0.0855124},
{-0.1947190,-0.0779991,0.3083680,0.1436347,-0.0876974,0.0153803,0.0616597,0.0498690,0.1213476,-0.2957867,0.1712905,-0.2353898,-0.1452552,-0.5212941,0.1084289,0.3320539,0.0533153,0.0429723,-0.1182238,0.2866273,0.2159550,-0.3643373,0.0422163,-0.5242196,-0.0775780,-0.1442277,-0.0051590,0.1304640,0.0958777,0.0968556,-0.2405398,-0.2728779,0.2420441,0.1028916,0.0426948,0.0133452,0.1352519,0.1132675,0.0131595,0.3700473,0.1019070,0.2534932,0.1458254,-0.0872005,0.2389432,-0.0742370,-0.1061658,0.2682007},
{-0.1566326,0.2294838,-0.1671094,-0.1445650,-0.0036937,0.0736098,-0.0816088,0.0204374,0.3144448,0.0458652,0.3390784,-0.1756825,-0.0766876,-0.3193322,0.2402600,-0.0053193,-0.1391285,-0.1424944,0.0871258,0.1811274,0.1482325,0.1466502,-0.1182606,-0.2147299,0.1242095,-0.0292166,-0.4405522,-0.1384104,-0.1355230,-0.2110347,-0.0733636,-0.1530185,0.3163284,0.1619377,0.1694289,0.2574405,-0.0812744,-0.1854009,0.0555510,0.0687009,0.3194861,0.2433570,0.1723652,-0.1218293,0.0282318,-0.0764234,0.2906225,0.2252700},
{-0.0023648,0.3380388,-0.2647591,-0.1779194,0.0162149,0.0343319,-0.1239108,-0.1110062,0.2998968,0.1000925,0.1791999,-0.0444585,-0.2009190,0.0383476,-0.0509064,-0.1297294,-0.2647812,-0.3530075,0.1292734,0.2756663,-0.0683851,0.2745737,-0.2568905,0.0800527,0.1128004,-0.0454524,-0.2834396,-0.2785135,-0.2625915,-0.2232061,0.1401200,-0.1144363,0.2014022,0.2368771,0.2254712,0.3006065,-0.1064172,-0.2660438,-0.0104311,-0.0572698,0.2565019,0.0368682,0.0195230,0.0052879,0.0273258,0.1058933,0.0573891,0.2234967},
{0.1690840,0.3163316,-0.2788812,-0.1159611,0.0764453,0.0270011,-0.1069037,-0.2002776,0.1795944,0.0434052,-0.0445755,0.1165319,-0.3207994,0.3795926,-0.3384933,-0.1518526,-0.2471449,-0.4397018,0.1026693,0.2608707,-0.2826558,0.2892955,-0.2400154,0.3304301,0.1076776,-0.0148045,0.0256904,-0.2938860,-0.1597857,-0.1657946,0.3004069,-0.0511486,0.0138455,0.2326457,0.2487717,0.2304445,-0.1074987,-0.1818900,-0.0469073,-0.1684853,0.0816569,-0.1317904,-0.0230352,0.1477685,0.0347324,0.2913857,-0.1469572,0.1548341},
{0.2919868,0.1387715,-0.2135750,-0.0331566,0.1675896,-0.0206932,-0.0593572,-0.1759357,-0.0160825,-0.1006605,-0.1864720,0.1804983,-0.2508582,0.5182957,-0.4904839,-0.0898224,-0.1115601,-0.3098811,0.0345315,0.0600047,-0.3646297,0.2276823,-0.1652983,0.4376471,0.0992187,0.0411310,0.3503812,-0.2505286,0.0758765,-0.1030294,0.3807980,0.0266506,-0.1887768,0.1302845,0.1850295,0.0478719,-0.0918119,-0.0602284,-0.0259642,-0.2070850,-0.1096524,-0.2022588,0.0224118,0.2398259,0.0039925,0.3412498,-0.1752533,-0.0611807},
{0.3217785,-0.1157381,-0.0826889,0.0337459,0.2037217,-0.1457907,-0.0067102,-0.0775546,-0.2145041,-0.1900408,-0.1982018,0.1189611,0.0335032,0.3903731,-0.4091362,-0.0198555,0.0379891,-0.0194573,-0.0181411,-0.2532079,-0.2547220,0.1334631,-0.0993252,0.3714453,0.0434645,0.0670747,0.5196958,-0.1432424,0.1845468,-0.0296762,0.3598021,0.1091340,-0.3225847,-0.0295836,0.0151466,-0.1681069,-0.0520390,-0.0003765,0.0065408,-0.1530455,-0.2465372,-0.2005937,0.0234288,0.2579880,-0.0685750,0.1795040,-0.0743160,-0.3306947},
{0.0638884,-0.3271840,0.2293933,0.1394864,-0.0659769,-0.2377727,0.1209802,0.0397085,-0.2893198,0.0968195,-0.1465828,0.0049603,0.4396154,-0.1076920,0.2344439,0.0818966,0.1352045,0.3721134,-0.1148804,-0.4340955,0.1818557,-0.1353435,0.1382177,-0.0449516,-0.1401359,0.0450396,0.1114119,0.3850104,-0.1244050,0.1735008,-0.0199078,0.2128355,-0.1875813,-0.2322817,-0.3132055,-0.2744561,0.0734119,0.0577246,-0.0169569,0.0334036,-0.2902699,-0.1081175,-0.2191028,0.0399131,-0.1076376,-0.2887309,-0.0022720,-0.2902196},
{-0.1664332,-0.2109954,0.2862662,0.1163388,-0.2140703,-0.0370497,0.1539015,0.1057996,-0.1440050,0.2526228,-0.1424345,0.0583863,0.2856364,-0.1972957,0.4428363,0.1403245,0.1360792,0.3308433,-0.1887407,-0.1707906,0.2499929,-0.2857499,0.2674987,-0.2288515,-0.1411632,0.0495819,-0.2338898,0.5273580,-0.1452152,0.1883085,-0.3005511,0.1645450,0.0047851,-0.2190648,-0.2820485,-0.1468257,0.1062553,0.1283536,-0.0153274,0.0631423,-0.1668474,-0.0165288,-0.2293889,-0.1830396,-0.0287007,-0.2736228,-0.0407074,-0.0100927},
{-0.3544638,-0.0593157,0.2232798,0.0097744,-0.2325748,0.2067360,0.1114042,0.2222084,0.0244559,0.2430564,-0.0562433,0.0874802,0.0209809,-0.2004561,0.4196640,0.1350718,0.1434771,0.2079915,-0.1714151,0.1411371,0.1926095,-0.3482263,0.2703843,-0.3284232,-0.0762609,0.0251639,-0.4073716,0.3452379,0.0129562,0.1101654,-0.5017368,0.0263233,0.1643669,-0.1564418,-0.1282826,-0.0072478,0.1009003,0.1602912,0.0105092,0.0641031,0.0649755,0.0889691,-0.0879419,-0.3724147,0.0548749,-0.1256852,-0.0215255,0.1920119},
{-0.3987983,0.0495653,0.0769408,-0.1043234,-0.1306770,0.3205458,0.0068865,0.2795556,0.1443117,0.1076629,0.1258497,0.0076161,-0.1759799,-0.1913003,0.2237297,0.0164458,0.1214572,0.0487619,0.0075264,0.3494883,0.1006552,-0.2482578,0.1404011,-0.3257871,-0.0122465,-0.0555707,-0.3462743,-0.0626803,0.1752981,0.0150531,-0.5043951,-0.1495733,0.2405212,-0.0583744,0.0522678,0.0965930,0.0709355,0.1075911,0.0218947,0.0770697,0.3255117,0.1716634,0.0894263,-0.3995981,0.1038612,-0.0047312,0.0511671,0.2477761},
{-0.2652386,0.1195824,-0.0728148,-0.1253873,0.0021435,0.2521314,-0.0922032,0.1443522,0.2042652,-0.0420801,0.2915500,-0.1557650,-0.2337880,-0.1696525,-0.0196300,-0.1493455,0.0284979,-0.1401394,0.2483469,0.4170008,0.0397107,-0.0141811,-0.0170951,-0.2197331,0.0135535,-0.1370331,-0.1598843,-0.4038146,0.2123879,-0.0287313,-0.2713718,-0.2675488,0.2344931,0.0739899,0.1736206,0.1762081,0.0296597,0.0062654,0.0047307,0.1077767,0.4628890,0.2082347,0.1744580,-0.2227015,0.1175628,0.0258216,0.0984087,0.2406163},
{-0.0240551,0.1902748,-0.1634288,-0.0480228,0.0867383,0.0928684,-0.1302724,-0.1495789,0.2248148,-0.1563454,0.3101309,-0.2819867,-0.1935459,-0.0941378,-0.2206069,-0.2219003,-0.1175959,-0.3090661,0.3363757,0.3630963,-0.0031771,0.2202399,-0.1191187,-0.0374113,0.0258054,-0.1311757,-0.0042183,-0.4812638,0.1522466,-0.0394548,0.1028048,-0.2594877,0.1689970,0.2157996,0.2014223,0.2343682,-0.0220829,-0.0736532,-0.0076170,0.1224641,0.3663134,0.1927201,0.1553700,0.0635253,0.0975401,0.0401808,0.0719266,0.2300168},
{0.1992088,0.2561694,-0.1847684,0.0277156,0.1091549,-0.0439976,-0.1121468,-0.3810700,0.2043133,-0.2506312,0.1674922,-0.2599002,-0.1277094,0.0269619,-0.3411390,-0.1351597,-0.2380646,-0.3523809,0.1669632,0.1909489,-0.0709021,0.3211249,-0.1865135,0.1576695,0.0594610,-0.0304202,0.0678430,-0.3402950,0.0573007,-0.0749584,0.4321401,-0.1402462,0.0628303,0.3030668,0.1501184,0.2250346,-0.0805529,-0.1072792,0.0097619,0.0872550,0.0773873,0.1174662,0.1136847,0.3051195,0.0316829,0.1163719,0.0058951,0.1561735},
{0.3154317,0.2524303,-0.1600236,0.0213493,0.1017134,-0.1287732,-0.0768819,-0.3532893,0.1157278,-0.3026567,-0.0296924,-0.0818615,-0.0771567,0.1276648,-0.3499983,0.0301726,-0.2557852,-0.2170671,-0.1196585,-0.0805134,-0.1583440,0.2631784,-0.2578774,0.2887071,0.1025020,0.0724329,0.1219385,-0.1236415,-0.0935490,-0.1322901,0.5523459,0.0116896,-0.0645490,0.2717566,0.0646178,0.1065419,-0.1220956,-0.1180623,0.0278309,0.0016484,-0.2276425,-0.0197441,0.0995943,0.4045538,-0.0666445,0.2144845,-0.0368795,-0.0400415},
{0.3150466,0.1233416,-0.1078850,-0.0284535,0.0934590,-0.1902469,-0.0406769,-0.1015694,-0.0409146,-0.2238383,-0.1691564,0.1519804,-0.0407093,0.1634656,-0.2171510,0.1417409,-0.1570626,0.0084311,-0.2725917,-0.3489037,-0.2045474,0.1280236,-0.2757822,0.3076537,0.1110370,0.0930294,0.2190364,0.1145929,-0.3129816,-0.1435836,0.4211346,0.1267696,-0.1778713,0.1155076,-0.0013534,-0.0829856,-0.1160196,-0.1175370,0.0065609,-0.1043173,-0.3804741,-0.1793819,0.0737371,0.3530178,-0.1341639,0.2229282,-0.0379381,-0.2675583},
{0.2332691,-0.1041856,-0.0343188,-0.0232345,0.0843996,-0.2268766,0.0118260,0.1489618,-0.2039273,0.0239346,-0.2196254,0.3121274,0.0095778,0.1552678,0.0294917,0.1537771,0.0034827,0.1647710,-0.1905809,-0.4672055,-0.1602438,0.0042396,-0.1378551,0.2174753,0.0684377,0.0507691,0.3085704,0.3680828,-0.4586346,-0.0755022,0.1294153,0.1893169,-0.2313932,-0.0987312,-0.0191502,-0.2357130,-0.0576096,-0.0813837,-0.0346420,-0.1916766,-0.3458435,-0.2776261,-0.0197769,0.1812160,-0.1133050,0.0992647,-0.0247004,-0.3431682},
{0.0981011,-0.3195291,0.0482489,0.0559295,0.0534585,-0.1908973,0.0835847,0.2239815,-0.2872559,0.3206001,-0.2066294,0.3277443,0.1012938,0.1375131,0.2726056,0.1175003,0.1485048,0.1835104,-0.0075168,-0.3747688,-0.0433830,-0.0885648,0.1362186,0.0596424,0.0031700,0.0253312,0.2687512,0.5199808,-0.3168974,0.0153653,-0.1727005,0.2129077,-0.1967797,-0.2723336,-0.0132100,-0.2668616,0.0203306,0.0032565,-0.0347670,-0.2251546,-0.2082553,-0.2504231,-0.1573007,-0.0696141,-0.0291573,-0.0812858,-0.0202498,-0.2035909},
{-0.0731006,-0.3996422,0.1147971,0.1171989,-0.0177950,-0.0625174,0.1391790,0.1545481,-0.2519192,0.4594864,-0.1478977,0.2150209,0.2213607,0.0975236,0.3722463,0.0748676,0.2262169,0.1398193,0.0842780,-0.1534234,0.0813743,-0.1705259,0.3618688,-0.1098265,-0.0533640,0.0413998,0.0487170,0.3817608,0.1199211,0.0582101,-0.3649372,0.1924281,-0.0866638,-0.3332565,-0.0406619,-0.1815484,0.0759040,0.0970050,0.0145808,-0.1782651,-0.0573822,-0.1191524,-0.2443999,-0.3187841,0.0285948,-0.2166054,-0.0201913,0.0085878},
{-0.2407493,-0.2908086,0.1480531,0.0764240,-0.1203137,0.1001160,0.1374811,0.0842250,-0.1303549,0.3416343,-0.0472289,0.0383215,0.2942846,0.0038922,0.2780724,0.0008017,0.2254887,0.1327481,0.0464382,0.0709730,0.1641363,-0.2259728,0.3649955,-0.2330892,-0.0999662,0.0440865,-0.2506652,-0.0491034,0.5468209,0.0675657,-0.3995921,0.1031318,0.0485200,-0.2657383,-0.1222324,-0.0471513,0.0945390,0.1426667,0.0395522,-0.0482158,0.0860036,0.0291284,-0.2137401,-0.4406434,0.0168433,-0.2692505,-0.0160706,0.1076557},
{-0.3090310,0.2158806,0.1340365,-0.1073311,-0.2019957,0.2418521,-0.0047237,0.0583665,0.1511827,-0.1793382,0.1413095,-0.2861740,0.0107894,-0.1913756,-0.1298982,-0.2335946,0.0513239,0.1036942,0.0214601,0.3904335,0.1772830,-0.0661632,-0.0363646,-0.1808149,-0.1487301,-0.0716804,-0.4144229,-0.5317495,0.2685534,0.2080615,-0.1054507,-0.2085606,0.1778511,0.0864202,-0.1754592,0.1645172,0.0805616,0.0920812,-0.0894215,0.2681031,0.3396113,0.1918995,0.0545372,-0.0889973,0.0518296,-0.1391905,-0.0113081,0.0333825},
{-0.1636288,0.3556051,0.0781541,-0.0908387,-0.0812668,0.2180541,-0.0782904,-0.0354663,0.2520638,-0.3027588,0.1563560,-0.3491978,-0.2425900,-0.1674121,-0.2303910,-0.2137496,-0.0797599,-0.0527647,0.0822331,0.4514479,0.1040059,0.0912740,-0.1281252,-0.0355691,-0.0834424,-0.0821984,-0.1743836,-0.2134585,-0.1753146,0.2345117,0.0927559,-0.2851912,0.1391691,0.2386446,-0.0334450,0.1994096,0.0531986,0.0519217,-0.0598916,0.3094411,0.3287954,0.2375001,0.1592970,0.1724775,0.1442687,0.0620546,0.0079218,0.0921822},
{0.0370812,0.3170999,-0.0354034,-0.0304299,0.1023910,0.1525900,-0.1350008,-0.1616304,0.2876990,-0.3282894,0.1457414,-0.2849842,-0.3691877,-0.0939857,-0.2281974,-0.0462580,-0.1997922,-0.2320737,0.0780416,0.3281483,-0.0214926,0.1616543,-0.1494826,0.0906634,0.0458040,-0.0451675,0.1465693,0.1576740,-0.3991939,0.0916851,0.2332805,-0.2410216,0.0675453,0.3018512,0.1404296,0.1646635,-0.0067960,-0.0151673,0.0844049,0.2275428,0.1584925,0.2376092,0.2121922,0.2975873,0.1439317,0.2835053,0.0552474,0.1897564},
{0.2179718,0.1481523,-0.1821101,0.0101603,0.2307002,0.0140533,-0.1636750,-0.2091492,0.2170148,-0.2916577,0.1408038,-0.0874025,-0.2996513,-0.0489357,-0.1534186,0.1522501,-0.2635648,-0.3096534,-0.0037279,-0.0018488,-0.1559497,0.1152260,-0.1980546,0.1356682,0.1652888,-0.0264869,0.3922989,0.2789737,-0.3508294,-0.1747663,0.2799588,-0.1050092,0.0021120,0.2605962,0.2307061,0.0682163,-0.0893268,-0.1236463,0.1922776,0.0566687,-0.1011830,0.1282730,0.2108148,0.2789426,-0.0097782,0.3804040,0.0969579,0.2007436},
{0.3232300,-0.0370495,-0.2792841,0.0275245,0.2178980,-0.2019274,-0.1332751,-0.1346898,0.0404443,-0.1685132,0.1099575,0.1674118,-0.1115260,-0.0371059,-0.0354346,0.2429251,-0.2308359,-0.2414159,-0.0777805,-0.3739086,-0.2315100,0.0408933,-0.2533361,0.1068248,0.2004961,-0.0450285,0.4456485,0.1775457,-0.1950166,-0.3880904,0.2372624,0.0584251,-0.0402357,0.1348808,0.2061303,-0.0432654,-0.1510524,-0.2186912,0.1138646,-0.1381311,-0.3097585,-0.0887324,0.1451845,0.1983260,-0.1961361,0.2718363,0.0769584,0.0864418},
{0.3218198,-0.1461639,-0.2465561,0.0510011,0.0904131,-0.3969680,-0.0268500,-0.0054901,-0.1667342,0.0594024,-0.0048762,0.3497634,0.0606533,0.0133530,0.0918731,0.1970413,-0.0966482,-0.0783371,-0.0759531,-0.5468801,-0.2097464,0.0430537,-0.1963732,0.0635476,0.1460129,-0.0341872,0.2748141,0.0833460,-0.0638085,-0.4045393,0.1352471,0.1933808,-0.0692853,-0.0324129,0.1308818,-0.1183453,-0.1477053,-0.2096300,-0.1034037,-0.2895326,-0.3640504,-0.2991772,0.0206049,0.1063194,-0.2249302,0.0407675,-0.0134707,-0.0831995}
};