float outBias[96] = {0.0389130,-0.0414095,-0.0577510,0.0101644,0.0681214,0.0339777,-0.0877873,-0.0270844,0.0530781,0.0693757,0.0302126,0.0015384,0.0042104,-0.0052253,-0.0507381,-0.0837664,-0.0459901,0.0406788,0.0890749,-0.0077474,-0.0196820,0.0175520,0.0285665,-0.0274554,0.0694906,0.1523501,0.1016950,-0.0219395,-0.0834670,0.0514018,0.0433442,-0.0483305,-0.1086984,-0.0600070,0.0464972,0.1029001,0.0727795,0.0115975,-0.0244714,-0.0396534,-0.0565844,-0.0563060,0.0699027,0.0874007,0.0139399,-0.0739213,-0.0740469,0.0112774,-0.0593516,-0.0513214,0.0248656,0.0627392,0.0078154,-0.0688677,0.0195351,0.0856019,0.0639034,-0.0050115,-0.0403994,-0.0296850,-0.0234821,-0.0426811,-0.0424433,0.0143942,0.0847876,0.0900951,0.0192306,-0.0486264,-0.0034882,0.0058170,-0.0400982,-0.0722458,0.1493272,0.0331361,-0.0937683,-0.1116869,-0.0213515,0.0273605,-0.0586330,-0.0793891,0.0038147,0.1000046,0.1056952,0.0250844,-0.0528079,-0.0701324,-0.0493108,-0.0298429,-0.0061713,0.0409130,0.0556425,-0.0319678,-0.0919336,-0.0517402,0.0439001,0.0804172};
